digraph Tree {
node [shape=box, style="filled, rounded", color="black", fontname=helvetica] ;
edge [fontname=helvetica] ;
0 [label=<Sex_female &le; 0.5<br/>gini = 0.473<br/>samples = 891<br/>value = [549, 342]>, fillcolor="#e5813960"] ;
1 [label=<Age &le; 6.5<br/>gini = 0.3064<br/>samples = 577<br/>value = [468, 109]>, fillcolor="#e58139c4"] ;
0 -> 1 [labeldistance=2.5, labelangle=45, headlabel="True"] ;
2 [label=<SibSp &le; 2.5<br/>gini = 0.4444<br/>samples = 24<br/>value = [8, 16]>, fillcolor="#399de57f"] ;
1 -> 2 ;
3 [label=<gini = 0.0<br/>samples = 15<br/>value = [0, 15]>, fillcolor="#399de5ff"] ;
2 -> 3 ;
4 [label=<Age &le; 2.5<br/>gini = 0.1975<br/>samples = 9<br/>value = [8, 1]>, fillcolor="#e58139df"] ;
2 -> 4 ;
5 [label=<gini = 0.0<br/>samples = 5<br/>value = [5, 0]>, fillcolor="#e58139ff"] ;
4 -> 5 ;
6 [label=<Age &le; 3.5<br/>gini = 0.375<br/>samples = 4<br/>value = [3, 1]>, fillcolor="#e58139aa"] ;
4 -> 6 ;
7 [label=<gini = 0.0<br/>samples = 1<br/>value = [0, 1]>, fillcolor="#399de5ff"] ;
6 -> 7 ;
8 [label=<gini = 0.0<br/>samples = 3<br/>value = [3, 0]>, fillcolor="#e58139ff"] ;
6 -> 8 ;
9 [label=<Pclass &le; 1.5<br/>gini = 0.2798<br/>samples = 553<br/>value = [460, 93]>, fillcolor="#e58139cb"] ;
1 -> 9 ;
10 [label=<Age &le; 53.0<br/>gini = 0.4599<br/>samples = 120<br/>value = [77, 43]>, fillcolor="#e5813971"] ;
9 -> 10 ;
11 [label=<Age &le; 17.5<br/>gini = 0.4831<br/>samples = 98<br/>value = [58, 40]>, fillcolor="#e581394f"] ;
10 -> 11 ;
12 [label=<gini = 0.0<br/>samples = 2<br/>value = [0, 2]>, fillcolor="#399de5ff"] ;
11 -> 12 ;
13 [label=<Age &le; 22.5<br/>gini = 0.4783<br/>samples = 96<br/>value = [58, 38]>, fillcolor="#e5813958"] ;
11 -> 13 ;
14 [label=<gini = 0.0<br/>samples = 5<br/>value = [5, 0]>, fillcolor="#e58139ff"] ;
13 -> 14 ;
15 [label=<Age &le; 27.5<br/>gini = 0.4864<br/>samples = 91<br/>value = [53, 38]>, fillcolor="#e5813948"] ;
13 -> 15 ;
16 [label=<Parch &le; 0.5<br/>gini = 0.42<br/>samples = 10<br/>value = [3, 7]>, fillcolor="#399de592"] ;
15 -> 16 ;
17 [label=<Age &le; 24.5<br/>gini = 0.2449<br/>samples = 7<br/>value = [1, 6]>, fillcolor="#399de5d4"] ;
16 -> 17 ;
18 [label=<gini = 0.0<br/>samples = 1<br/>value = [1, 0]>, fillcolor="#e58139ff"] ;
17 -> 18 ;
19 [label=<gini = 0.0<br/>samples = 6<br/>value = [0, 6]>, fillcolor="#399de5ff"] ;
17 -> 19 ;
20 [label=<Age &le; 23.5<br/>gini = 0.4444<br/>samples = 3<br/>value = [2, 1]>, fillcolor="#e581397f"] ;
16 -> 20 ;
21 [label=<gini = 0.0<br/>samples = 1<br/>value = [0, 1]>, fillcolor="#399de5ff"] ;
20 -> 21 ;
22 [label=<gini = 0.0<br/>samples = 2<br/>value = [2, 0]>, fillcolor="#e58139ff"] ;
20 -> 22 ;
23 [label=<Age &le; 47.5<br/>gini = 0.4725<br/>samples = 81<br/>value = [50, 31]>, fillcolor="#e5813961"] ;
15 -> 23 ;
24 [label=<Age &le; 43.0<br/>gini = 0.4477<br/>samples = 68<br/>value = [45, 23]>, fillcolor="#e581397d"] ;
23 -> 24 ;
25 [label=<Age &le; 31.5<br/>gini = 0.477<br/>samples = 56<br/>value = [34, 22]>, fillcolor="#e581395a"] ;
24 -> 25 ;
26 [label=<Age &le; 28.5<br/>gini = 0.3829<br/>samples = 31<br/>value = [23, 8]>, fillcolor="#e58139a6"] ;
25 -> 26 ;
27 [label=<SibSp &le; 0.5<br/>gini = 0.5<br/>samples = 4<br/>value = [2, 2]>, fillcolor="#e5813900"] ;
26 -> 27 ;
28 [label=<gini = 0.4444<br/>samples = 3<br/>value = [1, 2]>, fillcolor="#399de57f"] ;
27 -> 28 ;
29 [label=<gini = 0.0<br/>samples = 1<br/>value = [1, 0]>, fillcolor="#e58139ff"] ;
27 -> 29 ;
30 [label=<Age &le; 29.3496<br/>gini = 0.3457<br/>samples = 27<br/>value = [21, 6]>, fillcolor="#e58139b6"] ;
26 -> 30 ;
31 [label=<gini = 0.0<br/>samples = 2<br/>value = [2, 0]>, fillcolor="#e58139ff"] ;
30 -> 31 ;
32 [label=<SibSp &le; 0.5<br/>gini = 0.3648<br/>samples = 25<br/>value = [19, 6]>, fillcolor="#e58139ae"] ;
30 -> 32 ;
33 [label=<Age &le; 29.8496<br/>gini = 0.3403<br/>samples = 23<br/>value = [18, 5]>, fillcolor="#e58139b8"] ;
32 -> 33 ;
34 [label=<gini = 0.3628<br/>samples = 21<br/>value = [16, 5]>, fillcolor="#e58139af"] ;
33 -> 34 ;
35 [label=<gini = 0.0<br/>samples = 2<br/>value = [2, 0]>, fillcolor="#e58139ff"] ;
33 -> 35 ;
36 [label=<gini = 0.5<br/>samples = 2<br/>value = [1, 1]>, fillcolor="#e5813900"] ;
32 -> 36 ;
37 [label=<Age &le; 36.5<br/>gini = 0.4928<br/>samples = 25<br/>value = [11, 14]>, fillcolor="#399de537"] ;
25 -> 37 ;
38 [label=<Age &le; 33.5<br/>gini = 0.375<br/>samples = 12<br/>value = [3, 9]>, fillcolor="#399de5aa"] ;
37 -> 38 ;
39 [label=<Age &le; 32.5<br/>gini = 0.5<br/>samples = 2<br/>value = [1, 1]>, fillcolor="#e5813900"] ;
38 -> 39 ;
40 [label=<gini = 0.0<br/>samples = 1<br/>value = [0, 1]>, fillcolor="#399de5ff"] ;
39 -> 40 ;
41 [label=<gini = 0.0<br/>samples = 1<br/>value = [1, 0]>, fillcolor="#e58139ff"] ;
39 -> 41 ;
42 [label=<Age &le; 35.5<br/>gini = 0.32<br/>samples = 10<br/>value = [2, 8]>, fillcolor="#399de5bf"] ;
38 -> 42 ;
43 [label=<gini = 0.0<br/>samples = 4<br/>value = [0, 4]>, fillcolor="#399de5ff"] ;
42 -> 43 ;
44 [label=<Parch &le; 0.5<br/>gini = 0.4444<br/>samples = 6<br/>value = [2, 4]>, fillcolor="#399de57f"] ;
42 -> 44 ;
45 [label=<SibSp &le; 0.5<br/>gini = 0.5<br/>samples = 4<br/>value = [2, 2]>, fillcolor="#e5813900"] ;
44 -> 45 ;
46 [label=<gini = 0.4444<br/>samples = 3<br/>value = [1, 2]>, fillcolor="#399de57f"] ;
45 -> 46 ;
47 [label=<gini = 0.0<br/>samples = 1<br/>value = [1, 0]>, fillcolor="#e58139ff"] ;
45 -> 47 ;
48 [label=<gini = 0.0<br/>samples = 2<br/>value = [0, 2]>, fillcolor="#399de5ff"] ;
44 -> 48 ;
49 [label=<SibSp &le; 0.5<br/>gini = 0.4734<br/>samples = 13<br/>value = [8, 5]>, fillcolor="#e5813960"] ;
37 -> 49 ;
50 [label=<Age &le; 41.0<br/>gini = 0.375<br/>samples = 8<br/>value = [6, 2]>, fillcolor="#e58139aa"] ;
49 -> 50 ;
51 [label=<Age &le; 39.5<br/>gini = 0.2449<br/>samples = 7<br/>value = [6, 1]>, fillcolor="#e58139d4"] ;
50 -> 51 ;
52 [label=<gini = 0.0<br/>samples = 4<br/>value = [4, 0]>, fillcolor="#e58139ff"] ;
51 -> 52 ;
53 [label=<gini = 0.4444<br/>samples = 3<br/>value = [2, 1]>, fillcolor="#e581397f"] ;
51 -> 53 ;
54 [label=<gini = 0.0<br/>samples = 1<br/>value = [0, 1]>, fillcolor="#399de5ff"] ;
50 -> 54 ;
55 [label=<Parch &le; 0.5<br/>gini = 0.48<br/>samples = 5<br/>value = [2, 3]>, fillcolor="#399de555"] ;
49 -> 55 ;
56 [label=<Age &le; 37.5<br/>gini = 0.5<br/>samples = 4<br/>value = [2, 2]>, fillcolor="#e5813900"] ;
55 -> 56 ;
57 [label=<gini = 0.0<br/>samples = 1<br/>value = [1, 0]>, fillcolor="#e58139ff"] ;
56 -> 57 ;
58 [label=<Age &le; 40.0<br/>gini = 0.4444<br/>samples = 3<br/>value = [1, 2]>, fillcolor="#399de57f"] ;
56 -> 58 ;
59 [label=<gini = 0.0<br/>samples = 1<br/>value = [0, 1]>, fillcolor="#399de5ff"] ;
58 -> 59 ;
60 [label=<gini = 0.5<br/>samples = 2<br/>value = [1, 1]>, fillcolor="#e5813900"] ;
58 -> 60 ;
61 [label=<gini = 0.0<br/>samples = 1<br/>value = [0, 1]>, fillcolor="#399de5ff"] ;
55 -> 61 ;
62 [label=<Age &le; 45.25<br/>gini = 0.1528<br/>samples = 12<br/>value = [11, 1]>, fillcolor="#e58139e8"] ;
24 -> 62 ;
63 [label=<SibSp &le; 0.5<br/>gini = 0.32<br/>samples = 5<br/>value = [4, 1]>, fillcolor="#e58139bf"] ;
62 -> 63 ;
64 [label=<gini = 0.4444<br/>samples = 3<br/>value = [2, 1]>, fillcolor="#e581397f"] ;
63 -> 64 ;
65 [label=<gini = 0.0<br/>samples = 2<br/>value = [2, 0]>, fillcolor="#e58139ff"] ;
63 -> 65 ;
66 [label=<gini = 0.0<br/>samples = 7<br/>value = [7, 0]>, fillcolor="#e58139ff"] ;
62 -> 66 ;
67 [label=<Parch &le; 0.5<br/>gini = 0.4734<br/>samples = 13<br/>value = [5, 8]>, fillcolor="#399de560"] ;
23 -> 67 ;
68 [label=<Age &le; 49.5<br/>gini = 0.32<br/>samples = 10<br/>value = [2, 8]>, fillcolor="#399de5bf"] ;
67 -> 68 ;
69 [label=<gini = 0.0<br/>samples = 5<br/>value = [0, 5]>, fillcolor="#399de5ff"] ;
68 -> 69 ;
70 [label=<Age &le; 50.5<br/>gini = 0.48<br/>samples = 5<br/>value = [2, 3]>, fillcolor="#399de555"] ;
68 -> 70 ;
71 [label=<SibSp &le; 1.5<br/>gini = 0.4444<br/>samples = 3<br/>value = [2, 1]>, fillcolor="#e581397f"] ;
70 -> 71 ;
72 [label=<gini = 0.0<br/>samples = 2<br/>value = [2, 0]>, fillcolor="#e58139ff"] ;
71 -> 72 ;
73 [label=<gini = 0.0<br/>samples = 1<br/>value = [0, 1]>, fillcolor="#399de5ff"] ;
71 -> 73 ;
74 [label=<gini = 0.0<br/>samples = 2<br/>value = [0, 2]>, fillcolor="#399de5ff"] ;
70 -> 74 ;
75 [label=<gini = 0.0<br/>samples = 3<br/>value = [3, 0]>, fillcolor="#e58139ff"] ;
67 -> 75 ;
76 [label=<Age &le; 75.5<br/>gini = 0.2355<br/>samples = 22<br/>value = [19, 3]>, fillcolor="#e58139d7"] ;
10 -> 76 ;
77 [label=<Age &le; 60.5<br/>gini = 0.1723<br/>samples = 21<br/>value = [19, 2]>, fillcolor="#e58139e4"] ;
76 -> 77 ;
78 [label=<SibSp &le; 0.5<br/>gini = 0.32<br/>samples = 10<br/>value = [8, 2]>, fillcolor="#e58139bf"] ;
77 -> 78 ;
79 [label=<Age &le; 55.5<br/>gini = 0.1975<br/>samples = 9<br/>value = [8, 1]>, fillcolor="#e58139df"] ;
78 -> 79 ;
80 [label=<gini = 0.0<br/>samples = 3<br/>value = [3, 0]>, fillcolor="#e58139ff"] ;
79 -> 80 ;
81 [label=<Age &le; 57.0<br/>gini = 0.2778<br/>samples = 6<br/>value = [5, 1]>, fillcolor="#e58139cc"] ;
79 -> 81 ;
82 [label=<gini = 0.4444<br/>samples = 3<br/>value = [2, 1]>, fillcolor="#e581397f"] ;
81 -> 82 ;
83 [label=<gini = 0.0<br/>samples = 3<br/>value = [3, 0]>, fillcolor="#e58139ff"] ;
81 -> 83 ;
84 [label=<gini = 0.0<br/>samples = 1<br/>value = [0, 1]>, fillcolor="#399de5ff"] ;
78 -> 84 ;
85 [label=<gini = 0.0<br/>samples = 11<br/>value = [11, 0]>, fillcolor="#e58139ff"] ;
77 -> 85 ;
86 [label=<gini = 0.0<br/>samples = 1<br/>value = [0, 1]>, fillcolor="#399de5ff"] ;
76 -> 86 ;
87 [label=<Age &le; 13.0<br/>gini = 0.2043<br/>samples = 433<br/>value = [383, 50]>, fillcolor="#e58139de"] ;
9 -> 87 ;
88 [label=<SibSp &le; 2.0<br/>gini = 0.4444<br/>samples = 12<br/>value = [8, 4]>, fillcolor="#e581397f"] ;
87 -> 88 ;
89 [label=<SibSp &le; 0.5<br/>gini = 0.32<br/>samples = 5<br/>value = [1, 4]>, fillcolor="#399de5bf"] ;
88 -> 89 ;
90 [label=<Parch &le; 1.0<br/>gini = 0.5<br/>samples = 2<br/>value = [1, 1]>, fillcolor="#e5813900"] ;
89 -> 90 ;
91 [label=<gini = 0.0<br/>samples = 1<br/>value = [1, 0]>, fillcolor="#e58139ff"] ;
90 -> 91 ;
92 [label=<gini = 0.0<br/>samples = 1<br/>value = [0, 1]>, fillcolor="#399de5ff"] ;
90 -> 92 ;
93 [label=<gini = 0.0<br/>samples = 3<br/>value = [0, 3]>, fillcolor="#399de5ff"] ;
89 -> 93 ;
94 [label=<gini = 0.0<br/>samples = 7<br/>value = [7, 0]>, fillcolor="#e58139ff"] ;
88 -> 94 ;
95 [label=<Age &le; 32.25<br/>gini = 0.1947<br/>samples = 421<br/>value = [375, 46]>, fillcolor="#e58139e0"] ;
87 -> 95 ;
96 [label=<Age &le; 30.75<br/>gini = 0.2211<br/>samples = 316<br/>value = [276, 40]>, fillcolor="#e58139da"] ;
95 -> 96 ;
97 [label=<Pclass &le; 2.5<br/>gini = 0.1934<br/>samples = 295<br/>value = [263, 32]>, fillcolor="#e58139e0"] ;
96 -> 97 ;
98 [label=<Age &le; 29.3496<br/>gini = 0.1087<br/>samples = 52<br/>value = [49, 3]>, fillcolor="#e58139ef"] ;
97 -> 98 ;
99 [label=<Age &le; 20.0<br/>gini = 0.0512<br/>samples = 38<br/>value = [37, 1]>, fillcolor="#e58139f8"] ;
98 -> 99 ;
100 [label=<Age &le; 18.5<br/>gini = 0.18<br/>samples = 10<br/>value = [9, 1]>, fillcolor="#e58139e3"] ;
99 -> 100 ;
101 [label=<gini = 0.0<br/>samples = 6<br/>value = [6, 0]>, fillcolor="#e58139ff"] ;
100 -> 101 ;
102 [label=<SibSp &le; 0.5<br/>gini = 0.375<br/>samples = 4<br/>value = [3, 1]>, fillcolor="#e58139aa"] ;
100 -> 102 ;
103 [label=<gini = 0.4444<br/>samples = 3<br/>value = [2, 1]>, fillcolor="#e581397f"] ;
102 -> 103 ;
104 [label=<gini = 0.0<br/>samples = 1<br/>value = [1, 0]>, fillcolor="#e58139ff"] ;
102 -> 104 ;
105 [label=<gini = 0.0<br/>samples = 28<br/>value = [28, 0]>, fillcolor="#e58139ff"] ;
99 -> 105 ;
106 [label=<Age &le; 29.8496<br/>gini = 0.2449<br/>samples = 14<br/>value = [12, 2]>, fillcolor="#e58139d4"] ;
98 -> 106 ;
107 [label=<gini = 0.3457<br/>samples = 9<br/>value = [7, 2]>, fillcolor="#e58139b6"] ;
106 -> 107 ;
108 [label=<gini = 0.0<br/>samples = 5<br/>value = [5, 0]>, fillcolor="#e58139ff"] ;
106 -> 108 ;
109 [label=<SibSp &le; 2.5<br/>gini = 0.2102<br/>samples = 243<br/>value = [214, 29]>, fillcolor="#e58139dc"] ;
97 -> 109 ;
110 [label=<Parch &le; 0.5<br/>gini = 0.2164<br/>samples = 235<br/>value = [206, 29]>, fillcolor="#e58139db"] ;
109 -> 110 ;
111 [label=<Age &le; 29.3496<br/>gini = 0.2052<br/>samples = 224<br/>value = [198, 26]>, fillcolor="#e58139de"] ;
110 -> 111 ;
112 [label=<Age &le; 28.75<br/>gini = 0.2401<br/>samples = 129<br/>value = [111, 18]>, fillcolor="#e58139d6"] ;
111 -> 112 ;
113 [label=<Age &le; 27.5<br/>gini = 0.2172<br/>samples = 121<br/>value = [106, 15]>, fillcolor="#e58139db"] ;
112 -> 113 ;
114 [label=<Age &le; 26.5<br/>gini = 0.2374<br/>samples = 109<br/>value = [94, 15]>, fillcolor="#e58139d6"] ;
113 -> 114 ;
115 [label=<Age &le; 24.75<br/>gini = 0.2041<br/>samples = 104<br/>value = [92, 12]>, fillcolor="#e58139de"] ;
114 -> 115 ;
116 [label=<Age &le; 20.25<br/>gini = 0.1742<br/>samples = 83<br/>value = [75, 8]>, fillcolor="#e58139e4"] ;
115 -> 116 ;
117 [label=<SibSp &le; 0.5<br/>gini = 0.2142<br/>samples = 41<br/>value = [36, 5]>, fillcolor="#e58139dc"] ;
116 -> 117 ;
118 [label=<Age &le; 16.5<br/>gini = 0.1928<br/>samples = 37<br/>value = [33, 4]>, fillcolor="#e58139e0"] ;
117 -> 118 ;
119 [label=<gini = 0.32<br/>samples = 5<br/>value = [4, 1]>, fillcolor="#e58139bf"] ;
118 -> 119 ;
120 [label=<Age &le; 17.5<br/>gini = 0.1699<br/>samples = 32<br/>value = [29, 3]>, fillcolor="#e58139e5"] ;
118 -> 120 ;
121 [label=<gini = 0.0<br/>samples = 4<br/>value = [4, 0]>, fillcolor="#e58139ff"] ;
120 -> 121 ;
122 [label=<Age &le; 18.5<br/>gini = 0.1913<br/>samples = 28<br/>value = [25, 3]>, fillcolor="#e58139e0"] ;
120 -> 122 ;
123 [label=<gini = 0.32<br/>samples = 5<br/>value = [4, 1]>, fillcolor="#e58139bf"] ;
122 -> 123 ;
124 [label=<Age &le; 19.5<br/>gini = 0.1588<br/>samples = 23<br/>value = [21, 2]>, fillcolor="#e58139e7"] ;
122 -> 124 ;
125 [label=<gini = 0.1528<br/>samples = 12<br/>value = [11, 1]>, fillcolor="#e58139e8"] ;
124 -> 125 ;
126 [label=<gini = 0.1653<br/>samples = 11<br/>value = [10, 1]>, fillcolor="#e58139e6"] ;
124 -> 126 ;
127 [label=<Age &le; 19.0<br/>gini = 0.375<br/>samples = 4<br/>value = [3, 1]>, fillcolor="#e58139aa"] ;
117 -> 127 ;
128 [label=<gini = 0.0<br/>samples = 3<br/>value = [3, 0]>, fillcolor="#e58139ff"] ;
127 -> 128 ;
129 [label=<gini = 0.0<br/>samples = 1<br/>value = [0, 1]>, fillcolor="#399de5ff"] ;
127 -> 129 ;
130 [label=<SibSp &le; 0.5<br/>gini = 0.1327<br/>samples = 42<br/>value = [39, 3]>, fillcolor="#e58139eb"] ;
116 -> 130 ;
131 [label=<Age &le; 23.75<br/>gini = 0.142<br/>samples = 39<br/>value = [36, 3]>, fillcolor="#e58139ea"] ;
130 -> 131 ;
132 [label=<Age &le; 22.5<br/>gini = 0.1207<br/>samples = 31<br/>value = [29, 2]>, fillcolor="#e58139ed"] ;
131 -> 132 ;
133 [label=<Age &le; 20.75<br/>gini = 0.1372<br/>samples = 27<br/>value = [25, 2]>, fillcolor="#e58139eb"] ;
132 -> 133 ;
134 [label=<gini = 0.0<br/>samples = 1<br/>value = [1, 0]>, fillcolor="#e58139ff"] ;
133 -> 134 ;
135 [label=<Age &le; 21.5<br/>gini = 0.142<br/>samples = 26<br/>value = [24, 2]>, fillcolor="#e58139ea"] ;
133 -> 135 ;
136 [label=<gini = 0.142<br/>samples = 13<br/>value = [12, 1]>, fillcolor="#e58139ea"] ;
135 -> 136 ;
137 [label=<gini = 0.142<br/>samples = 13<br/>value = [12, 1]>, fillcolor="#e58139ea"] ;
135 -> 137 ;
138 [label=<gini = 0.0<br/>samples = 4<br/>value = [4, 0]>, fillcolor="#e58139ff"] ;
132 -> 138 ;
139 [label=<Age &le; 24.25<br/>gini = 0.2188<br/>samples = 8<br/>value = [7, 1]>, fillcolor="#e58139db"] ;
131 -> 139 ;
140 [label=<gini = 0.2449<br/>samples = 7<br/>value = [6, 1]>, fillcolor="#e58139d4"] ;
139 -> 140 ;
141 [label=<gini = 0.0<br/>samples = 1<br/>value = [1, 0]>, fillcolor="#e58139ff"] ;
139 -> 141 ;
142 [label=<gini = 0.0<br/>samples = 3<br/>value = [3, 0]>, fillcolor="#e58139ff"] ;
130 -> 142 ;
143 [label=<SibSp &le; 1.5<br/>gini = 0.3084<br/>samples = 21<br/>value = [17, 4]>, fillcolor="#e58139c3"] ;
115 -> 143 ;
144 [label=<Age &le; 25.5<br/>gini = 0.32<br/>samples = 20<br/>value = [16, 4]>, fillcolor="#e58139bf"] ;
143 -> 144 ;
145 [label=<SibSp &le; 0.5<br/>gini = 0.2975<br/>samples = 11<br/>value = [9, 2]>, fillcolor="#e58139c6"] ;
144 -> 145 ;
146 [label=<gini = 0.2188<br/>samples = 8<br/>value = [7, 1]>, fillcolor="#e58139db"] ;
145 -> 146 ;
147 [label=<gini = 0.4444<br/>samples = 3<br/>value = [2, 1]>, fillcolor="#e581397f"] ;
145 -> 147 ;
148 [label=<SibSp &le; 0.5<br/>gini = 0.3457<br/>samples = 9<br/>value = [7, 2]>, fillcolor="#e58139b6"] ;
144 -> 148 ;
149 [label=<gini = 0.4082<br/>samples = 7<br/>value = [5, 2]>, fillcolor="#e5813999"] ;
148 -> 149 ;
150 [label=<gini = 0.0<br/>samples = 2<br/>value = [2, 0]>, fillcolor="#e58139ff"] ;
148 -> 150 ;
151 [label=<gini = 0.0<br/>samples = 1<br/>value = [1, 0]>, fillcolor="#e58139ff"] ;
143 -> 151 ;
152 [label=<SibSp &le; 0.5<br/>gini = 0.48<br/>samples = 5<br/>value = [2, 3]>, fillcolor="#399de555"] ;
114 -> 152 ;
153 [label=<gini = 0.375<br/>samples = 4<br/>value = [1, 3]>, fillcolor="#399de5aa"] ;
152 -> 153 ;
154 [label=<gini = 0.0<br/>samples = 1<br/>value = [1, 0]>, fillcolor="#e58139ff"] ;
152 -> 154 ;
155 [label=<gini = 0.0<br/>samples = 12<br/>value = [12, 0]>, fillcolor="#e58139ff"] ;
113 -> 155 ;
156 [label=<SibSp &le; 0.5<br/>gini = 0.4688<br/>samples = 8<br/>value = [5, 3]>, fillcolor="#e5813966"] ;
112 -> 156 ;
157 [label=<gini = 0.4898<br/>samples = 7<br/>value = [4, 3]>, fillcolor="#e5813940"] ;
156 -> 157 ;
158 [label=<gini = 0.0<br/>samples = 1<br/>value = [1, 0]>, fillcolor="#e58139ff"] ;
156 -> 158 ;
159 [label=<SibSp &le; 1.5<br/>gini = 0.1542<br/>samples = 95<br/>value = [87, 8]>, fillcolor="#e58139e8"] ;
111 -> 159 ;
160 [label=<SibSp &le; 0.5<br/>gini = 0.1392<br/>samples = 93<br/>value = [86, 7]>, fillcolor="#e58139ea"] ;
159 -> 160 ;
161 [label=<Age &le; 29.8496<br/>gini = 0.1511<br/>samples = 85<br/>value = [78, 7]>, fillcolor="#e58139e8"] ;
160 -> 161 ;
162 [label=<gini = 0.1437<br/>samples = 77<br/>value = [71, 6]>, fillcolor="#e58139e9"] ;
161 -> 162 ;
163 [label=<Age &le; 30.25<br/>gini = 0.2188<br/>samples = 8<br/>value = [7, 1]>, fillcolor="#e58139db"] ;
161 -> 163 ;
164 [label=<gini = 0.2449<br/>samples = 7<br/>value = [6, 1]>, fillcolor="#e58139d4"] ;
163 -> 164 ;
165 [label=<gini = 0.0<br/>samples = 1<br/>value = [1, 0]>, fillcolor="#e58139ff"] ;
163 -> 165 ;
166 [label=<gini = 0.0<br/>samples = 8<br/>value = [8, 0]>, fillcolor="#e58139ff"] ;
160 -> 166 ;
167 [label=<gini = 0.5<br/>samples = 2<br/>value = [1, 1]>, fillcolor="#e5813900"] ;
159 -> 167 ;
168 [label=<Age &le; 19.0<br/>gini = 0.3967<br/>samples = 11<br/>value = [8, 3]>, fillcolor="#e581399f"] ;
110 -> 168 ;
169 [label=<gini = 0.0<br/>samples = 6<br/>value = [6, 0]>, fillcolor="#e58139ff"] ;
168 -> 169 ;
170 [label=<Parch &le; 1.5<br/>gini = 0.48<br/>samples = 5<br/>value = [2, 3]>, fillcolor="#399de555"] ;
168 -> 170 ;
171 [label=<gini = 0.0<br/>samples = 3<br/>value = [0, 3]>, fillcolor="#399de5ff"] ;
170 -> 171 ;
172 [label=<gini = 0.0<br/>samples = 2<br/>value = [2, 0]>, fillcolor="#e58139ff"] ;
170 -> 172 ;
173 [label=<gini = 0.0<br/>samples = 8<br/>value = [8, 0]>, fillcolor="#e58139ff"] ;
109 -> 173 ;
174 [label=<Parch &le; 0.5<br/>gini = 0.4717<br/>samples = 21<br/>value = [13, 8]>, fillcolor="#e5813962"] ;
96 -> 174 ;
175 [label=<SibSp &le; 1.5<br/>gini = 0.4875<br/>samples = 19<br/>value = [11, 8]>, fillcolor="#e5813946"] ;
174 -> 175 ;
176 [label=<Pclass &le; 2.5<br/>gini = 0.4938<br/>samples = 18<br/>value = [10, 8]>, fillcolor="#e5813933"] ;
175 -> 176 ;
177 [label=<SibSp &le; 0.5<br/>gini = 0.5<br/>samples = 4<br/>value = [2, 2]>, fillcolor="#e5813900"] ;
176 -> 177 ;
178 [label=<Age &le; 31.5<br/>gini = 0.4444<br/>samples = 3<br/>value = [2, 1]>, fillcolor="#e581397f"] ;
177 -> 178 ;
179 [label=<gini = 0.5<br/>samples = 2<br/>value = [1, 1]>, fillcolor="#e5813900"] ;
178 -> 179 ;
180 [label=<gini = 0.0<br/>samples = 1<br/>value = [1, 0]>, fillcolor="#e58139ff"] ;
178 -> 180 ;
181 [label=<gini = 0.0<br/>samples = 1<br/>value = [0, 1]>, fillcolor="#399de5ff"] ;
177 -> 181 ;
182 [label=<SibSp &le; 0.5<br/>gini = 0.4898<br/>samples = 14<br/>value = [8, 6]>, fillcolor="#e5813940"] ;
176 -> 182 ;
183 [label=<Age &le; 31.5<br/>gini = 0.497<br/>samples = 13<br/>value = [7, 6]>, fillcolor="#e5813924"] ;
182 -> 183 ;
184 [label=<gini = 0.4444<br/>samples = 3<br/>value = [2, 1]>, fillcolor="#e581397f"] ;
183 -> 184 ;
185 [label=<gini = 0.5<br/>samples = 10<br/>value = [5, 5]>, fillcolor="#e5813900"] ;
183 -> 185 ;
186 [label=<gini = 0.0<br/>samples = 1<br/>value = [1, 0]>, fillcolor="#e58139ff"] ;
182 -> 186 ;
187 [label=<gini = 0.0<br/>samples = 1<br/>value = [1, 0]>, fillcolor="#e58139ff"] ;
175 -> 187 ;
188 [label=<gini = 0.0<br/>samples = 2<br/>value = [2, 0]>, fillcolor="#e58139ff"] ;
174 -> 188 ;
189 [label=<SibSp &le; 0.5<br/>gini = 0.1078<br/>samples = 105<br/>value = [99, 6]>, fillcolor="#e58139f0"] ;
95 -> 189 ;
190 [label=<Age &le; 38.5<br/>gini = 0.1312<br/>samples = 85<br/>value = [79, 6]>, fillcolor="#e58139ec"] ;
189 -> 190 ;
191 [label=<Pclass &le; 2.5<br/>gini = 0.0624<br/>samples = 31<br/>value = [30, 1]>, fillcolor="#e58139f6"] ;
190 -> 191 ;
192 [label=<Age &le; 34.5<br/>gini = 0.18<br/>samples = 10<br/>value = [9, 1]>, fillcolor="#e58139e3"] ;
191 -> 192 ;
193 [label=<Age &le; 33.5<br/>gini = 0.375<br/>samples = 4<br/>value = [3, 1]>, fillcolor="#e58139aa"] ;
192 -> 193 ;
194 [label=<gini = 0.0<br/>samples = 1<br/>value = [1, 0]>, fillcolor="#e58139ff"] ;
193 -> 194 ;
195 [label=<gini = 0.4444<br/>samples = 3<br/>value = [2, 1]>, fillcolor="#e581397f"] ;
193 -> 195 ;
196 [label=<gini = 0.0<br/>samples = 6<br/>value = [6, 0]>, fillcolor="#e58139ff"] ;
192 -> 196 ;
197 [label=<gini = 0.0<br/>samples = 21<br/>value = [21, 0]>, fillcolor="#e58139ff"] ;
191 -> 197 ;
198 [label=<Age &le; 45.25<br/>gini = 0.168<br/>samples = 54<br/>value = [49, 5]>, fillcolor="#e58139e5"] ;
190 -> 198 ;
199 [label=<Age &le; 44.5<br/>gini = 0.2688<br/>samples = 25<br/>value = [21, 4]>, fillcolor="#e58139ce"] ;
198 -> 199 ;
200 [label=<Age &le; 43.5<br/>gini = 0.2268<br/>samples = 23<br/>value = [20, 3]>, fillcolor="#e58139d9"] ;
199 -> 200 ;
201 [label=<Pclass &le; 2.5<br/>gini = 0.1884<br/>samples = 19<br/>value = [17, 2]>, fillcolor="#e58139e1"] ;
200 -> 201 ;
202 [label=<Age &le; 40.5<br/>gini = 0.32<br/>samples = 5<br/>value = [4, 1]>, fillcolor="#e58139bf"] ;
201 -> 202 ;
203 [label=<gini = 0.0<br/>samples = 3<br/>value = [3, 0]>, fillcolor="#e58139ff"] ;
202 -> 203 ;
204 [label=<gini = 0.5<br/>samples = 2<br/>value = [1, 1]>, fillcolor="#e5813900"] ;
202 -> 204 ;
205 [label=<Age &le; 39.5<br/>gini = 0.1327<br/>samples = 14<br/>value = [13, 1]>, fillcolor="#e58139eb"] ;
201 -> 205 ;
206 [label=<gini = 0.4444<br/>samples = 3<br/>value = [2, 1]>, fillcolor="#e581397f"] ;
205 -> 206 ;
207 [label=<gini = 0.0<br/>samples = 11<br/>value = [11, 0]>, fillcolor="#e58139ff"] ;
205 -> 207 ;
208 [label=<Parch &le; 0.5<br/>gini = 0.375<br/>samples = 4<br/>value = [3, 1]>, fillcolor="#e58139aa"] ;
200 -> 208 ;
209 [label=<gini = 0.4444<br/>samples = 3<br/>value = [2, 1]>, fillcolor="#e581397f"] ;
208 -> 209 ;
210 [label=<gini = 0.0<br/>samples = 1<br/>value = [1, 0]>, fillcolor="#e58139ff"] ;
208 -> 210 ;
211 [label=<gini = 0.5<br/>samples = 2<br/>value = [1, 1]>, fillcolor="#e5813900"] ;
199 -> 211 ;
212 [label=<Age &le; 61.5<br/>gini = 0.0666<br/>samples = 29<br/>value = [28, 1]>, fillcolor="#e58139f6"] ;
198 -> 212 ;
213 [label=<gini = 0.0<br/>samples = 23<br/>value = [23, 0]>, fillcolor="#e58139ff"] ;
212 -> 213 ;
214 [label=<Age &le; 63.5<br/>gini = 0.2778<br/>samples = 6<br/>value = [5, 1]>, fillcolor="#e58139cc"] ;
212 -> 214 ;
215 [label=<gini = 0.0<br/>samples = 1<br/>value = [0, 1]>, fillcolor="#399de5ff"] ;
214 -> 215 ;
216 [label=<gini = 0.0<br/>samples = 5<br/>value = [5, 0]>, fillcolor="#e58139ff"] ;
214 -> 216 ;
217 [label=<gini = 0.0<br/>samples = 20<br/>value = [20, 0]>, fillcolor="#e58139ff"] ;
189 -> 217 ;
218 [label=<Pclass &le; 2.5<br/>gini = 0.3828<br/>samples = 314<br/>value = [81, 233]>, fillcolor="#399de5a6"] ;
0 -> 218 [labeldistance=2.5, labelangle=-45, headlabel="False"] ;
219 [label=<Age &le; 2.5<br/>gini = 0.1003<br/>samples = 170<br/>value = [9, 161]>, fillcolor="#399de5f1"] ;
218 -> 219 ;
220 [label=<Parch &le; 1.5<br/>gini = 0.5<br/>samples = 2<br/>value = [1, 1]>, fillcolor="#e5813900"] ;
219 -> 220 ;
221 [label=<gini = 0.0<br/>samples = 1<br/>value = [0, 1]>, fillcolor="#399de5ff"] ;
220 -> 221 ;
222 [label=<gini = 0.0<br/>samples = 1<br/>value = [1, 0]>, fillcolor="#e58139ff"] ;
220 -> 222 ;
223 [label=<Pclass &le; 1.5<br/>gini = 0.0907<br/>samples = 168<br/>value = [8, 160]>, fillcolor="#399de5f2"] ;
219 -> 223 ;
224 [label=<Parch &le; 1.5<br/>gini = 0.0421<br/>samples = 93<br/>value = [2, 91]>, fillcolor="#399de5f9"] ;
223 -> 224 ;
225 [label=<Age &le; 49.5<br/>gini = 0.0244<br/>samples = 81<br/>value = [1, 80]>, fillcolor="#399de5fc"] ;
224 -> 225 ;
226 [label=<gini = 0.0<br/>samples = 66<br/>value = [0, 66]>, fillcolor="#399de5ff"] ;
225 -> 226 ;
227 [label=<Age &le; 50.5<br/>gini = 0.1244<br/>samples = 15<br/>value = [1, 14]>, fillcolor="#399de5ed"] ;
225 -> 227 ;
228 [label=<Parch &le; 0.5<br/>gini = 0.5<br/>samples = 2<br/>value = [1, 1]>, fillcolor="#e5813900"] ;
227 -> 228 ;
229 [label=<gini = 0.0<br/>samples = 1<br/>value = [1, 0]>, fillcolor="#e58139ff"] ;
228 -> 229 ;
230 [label=<gini = 0.0<br/>samples = 1<br/>value = [0, 1]>, fillcolor="#399de5ff"] ;
228 -> 230 ;
231 [label=<gini = 0.0<br/>samples = 13<br/>value = [0, 13]>, fillcolor="#399de5ff"] ;
227 -> 231 ;
232 [label=<Age &le; 24.5<br/>gini = 0.1528<br/>samples = 12<br/>value = [1, 11]>, fillcolor="#399de5e8"] ;
224 -> 232 ;
233 [label=<gini = 0.0<br/>samples = 8<br/>value = [0, 8]>, fillcolor="#399de5ff"] ;
232 -> 233 ;
234 [label=<Age &le; 28.0<br/>gini = 0.375<br/>samples = 4<br/>value = [1, 3]>, fillcolor="#399de5aa"] ;
232 -> 234 ;
235 [label=<gini = 0.0<br/>samples = 1<br/>value = [1, 0]>, fillcolor="#e58139ff"] ;
234 -> 235 ;
236 [label=<gini = 0.0<br/>samples = 3<br/>value = [0, 3]>, fillcolor="#399de5ff"] ;
234 -> 236 ;
237 [label=<Age &le; 56.0<br/>gini = 0.1472<br/>samples = 75<br/>value = [6, 69]>, fillcolor="#399de5e9"] ;
223 -> 237 ;
238 [label=<Age &le; 23.5<br/>gini = 0.126<br/>samples = 74<br/>value = [5, 69]>, fillcolor="#399de5ed"] ;
237 -> 238 ;
239 [label=<gini = 0.0<br/>samples = 19<br/>value = [0, 19]>, fillcolor="#399de5ff"] ;
238 -> 239 ;
240 [label=<Age &le; 27.5<br/>gini = 0.1653<br/>samples = 55<br/>value = [5, 50]>, fillcolor="#399de5e6"] ;
238 -> 240 ;
241 [label=<Age &le; 25.5<br/>gini = 0.355<br/>samples = 13<br/>value = [3, 10]>, fillcolor="#399de5b3"] ;
240 -> 241 ;
242 [label=<Parch &le; 0.5<br/>gini = 0.1975<br/>samples = 9<br/>value = [1, 8]>, fillcolor="#399de5df"] ;
241 -> 242 ;
243 [label=<SibSp &le; 0.5<br/>gini = 0.4444<br/>samples = 3<br/>value = [1, 2]>, fillcolor="#399de57f"] ;
242 -> 243 ;
244 [label=<gini = 0.5<br/>samples = 2<br/>value = [1, 1]>, fillcolor="#e5813900"] ;
243 -> 244 ;
245 [label=<gini = 0.0<br/>samples = 1<br/>value = [0, 1]>, fillcolor="#399de5ff"] ;
243 -> 245 ;
246 [label=<gini = 0.0<br/>samples = 6<br/>value = [0, 6]>, fillcolor="#399de5ff"] ;
242 -> 246 ;
247 [label=<SibSp &le; 0.5<br/>gini = 0.5<br/>samples = 4<br/>value = [2, 2]>, fillcolor="#e5813900"] ;
241 -> 247 ;
248 [label=<gini = 0.0<br/>samples = 1<br/>value = [0, 1]>, fillcolor="#399de5ff"] ;
247 -> 248 ;
249 [label=<Age &le; 26.5<br/>gini = 0.4444<br/>samples = 3<br/>value = [2, 1]>, fillcolor="#e581397f"] ;
247 -> 249 ;
250 [label=<gini = 0.0<br/>samples = 1<br/>value = [1, 0]>, fillcolor="#e58139ff"] ;
249 -> 250 ;
251 [label=<gini = 0.5<br/>samples = 2<br/>value = [1, 1]>, fillcolor="#e5813900"] ;
249 -> 251 ;
252 [label=<Age &le; 37.0<br/>gini = 0.0907<br/>samples = 42<br/>value = [2, 40]>, fillcolor="#399de5f2"] ;
240 -> 252 ;
253 [label=<gini = 0.0<br/>samples = 26<br/>value = [0, 26]>, fillcolor="#399de5ff"] ;
252 -> 253 ;
254 [label=<Age &le; 39.0<br/>gini = 0.2188<br/>samples = 16<br/>value = [2, 14]>, fillcolor="#399de5db"] ;
252 -> 254 ;
255 [label=<gini = 0.0<br/>samples = 1<br/>value = [1, 0]>, fillcolor="#e58139ff"] ;
254 -> 255 ;
256 [label=<SibSp &le; 0.5<br/>gini = 0.1244<br/>samples = 15<br/>value = [1, 14]>, fillcolor="#399de5ed"] ;
254 -> 256 ;
257 [label=<gini = 0.0<br/>samples = 9<br/>value = [0, 9]>, fillcolor="#399de5ff"] ;
256 -> 257 ;
258 [label=<Parch &le; 0.5<br/>gini = 0.2778<br/>samples = 6<br/>value = [1, 5]>, fillcolor="#399de5cc"] ;
256 -> 258 ;
259 [label=<Age &le; 43.0<br/>gini = 0.5<br/>samples = 2<br/>value = [1, 1]>, fillcolor="#e5813900"] ;
258 -> 259 ;
260 [label=<gini = 0.0<br/>samples = 1<br/>value = [0, 1]>, fillcolor="#399de5ff"] ;
259 -> 260 ;
261 [label=<gini = 0.0<br/>samples = 1<br/>value = [1, 0]>, fillcolor="#e58139ff"] ;
259 -> 261 ;
262 [label=<gini = 0.0<br/>samples = 4<br/>value = [0, 4]>, fillcolor="#399de5ff"] ;
258 -> 262 ;
263 [label=<gini = 0.0<br/>samples = 1<br/>value = [1, 0]>, fillcolor="#e58139ff"] ;
237 -> 263 ;
264 [label=<SibSp &le; 2.5<br/>gini = 0.5<br/>samples = 144<br/>value = [72, 72]>, fillcolor="#e5813900"] ;
218 -> 264 ;
265 [label=<Age &le; 38.5<br/>gini = 0.4955<br/>samples = 126<br/>value = [57, 69]>, fillcolor="#399de52c"] ;
264 -> 265 ;
266 [label=<Age &le; 7.0<br/>gini = 0.4814<br/>samples = 114<br/>value = [46, 68]>, fillcolor="#399de552"] ;
265 -> 266 ;
267 [label=<SibSp &le; 0.5<br/>gini = 0.1653<br/>samples = 11<br/>value = [1, 10]>, fillcolor="#399de5e6"] ;
266 -> 267 ;
268 [label=<Age &le; 3.0<br/>gini = 0.2778<br/>samples = 6<br/>value = [1, 5]>, fillcolor="#399de5cc"] ;
267 -> 268 ;
269 [label=<Parch &le; 1.5<br/>gini = 0.4444<br/>samples = 3<br/>value = [1, 2]>, fillcolor="#399de57f"] ;
268 -> 269 ;
270 [label=<gini = 0.5<br/>samples = 2<br/>value = [1, 1]>, fillcolor="#e5813900"] ;
269 -> 270 ;
271 [label=<gini = 0.0<br/>samples = 1<br/>value = [0, 1]>, fillcolor="#399de5ff"] ;
269 -> 271 ;
272 [label=<gini = 0.0<br/>samples = 3<br/>value = [0, 3]>, fillcolor="#399de5ff"] ;
268 -> 272 ;
273 [label=<gini = 0.0<br/>samples = 5<br/>value = [0, 5]>, fillcolor="#399de5ff"] ;
267 -> 273 ;
274 [label=<Age &le; 11.5<br/>gini = 0.492<br/>samples = 103<br/>value = [45, 58]>, fillcolor="#399de539"] ;
266 -> 274 ;
275 [label=<gini = 0.0<br/>samples = 3<br/>value = [3, 0]>, fillcolor="#e58139ff"] ;
274 -> 275 ;
276 [label=<Age &le; 16.5<br/>gini = 0.4872<br/>samples = 100<br/>value = [42, 58]>, fillcolor="#399de546"] ;
274 -> 276 ;
277 [label=<Age &le; 14.75<br/>gini = 0.3457<br/>samples = 9<br/>value = [2, 7]>, fillcolor="#399de5b6"] ;
276 -> 277 ;
278 [label=<Age &le; 13.5<br/>gini = 0.5<br/>samples = 4<br/>value = [2, 2]>, fillcolor="#e5813900"] ;
277 -> 278 ;
279 [label=<gini = 0.0<br/>samples = 1<br/>value = [0, 1]>, fillcolor="#399de5ff"] ;
278 -> 279 ;
280 [label=<SibSp &le; 0.5<br/>gini = 0.4444<br/>samples = 3<br/>value = [2, 1]>, fillcolor="#e581397f"] ;
278 -> 280 ;
281 [label=<gini = 0.0<br/>samples = 1<br/>value = [1, 0]>, fillcolor="#e58139ff"] ;
280 -> 281 ;
282 [label=<Age &le; 14.25<br/>gini = 0.5<br/>samples = 2<br/>value = [1, 1]>, fillcolor="#e5813900"] ;
280 -> 282 ;
283 [label=<gini = 0.0<br/>samples = 1<br/>value = [0, 1]>, fillcolor="#399de5ff"] ;
282 -> 283 ;
284 [label=<gini = 0.0<br/>samples = 1<br/>value = [1, 0]>, fillcolor="#e58139ff"] ;
282 -> 284 ;
285 [label=<gini = 0.0<br/>samples = 5<br/>value = [0, 5]>, fillcolor="#399de5ff"] ;
277 -> 285 ;
286 [label=<Age &le; 21.5<br/>gini = 0.4927<br/>samples = 91<br/>value = [40, 51]>, fillcolor="#399de537"] ;
276 -> 286 ;
287 [label=<Age &le; 19.5<br/>gini = 0.4567<br/>samples = 17<br/>value = [11, 6]>, fillcolor="#e5813974"] ;
286 -> 287 ;
288 [label=<Age &le; 18.5<br/>gini = 0.4959<br/>samples = 11<br/>value = [6, 5]>, fillcolor="#e581392a"] ;
287 -> 288 ;
289 [label=<SibSp &le; 0.5<br/>gini = 0.4444<br/>samples = 9<br/>value = [6, 3]>, fillcolor="#e581397f"] ;
288 -> 289 ;
290 [label=<Age &le; 17.5<br/>gini = 0.4898<br/>samples = 7<br/>value = [4, 3]>, fillcolor="#e5813940"] ;
289 -> 290 ;
291 [label=<gini = 0.0<br/>samples = 1<br/>value = [1, 0]>, fillcolor="#e58139ff"] ;
290 -> 291 ;
292 [label=<Parch &le; 0.5<br/>gini = 0.5<br/>samples = 6<br/>value = [3, 3]>, fillcolor="#e5813900"] ;
290 -> 292 ;
293 [label=<gini = 0.5<br/>samples = 4<br/>value = [2, 2]>, fillcolor="#e5813900"] ;
292 -> 293 ;
294 [label=<gini = 0.5<br/>samples = 2<br/>value = [1, 1]>, fillcolor="#e5813900"] ;
292 -> 294 ;
295 [label=<gini = 0.0<br/>samples = 2<br/>value = [2, 0]>, fillcolor="#e58139ff"] ;
289 -> 295 ;
296 [label=<gini = 0.0<br/>samples = 2<br/>value = [0, 2]>, fillcolor="#399de5ff"] ;
288 -> 296 ;
297 [label=<SibSp &le; 0.5<br/>gini = 0.2778<br/>samples = 6<br/>value = [5, 1]>, fillcolor="#e58139cc"] ;
287 -> 297 ;
298 [label=<Age &le; 20.5<br/>gini = 0.4444<br/>samples = 3<br/>value = [2, 1]>, fillcolor="#e581397f"] ;
297 -> 298 ;
299 [label=<gini = 0.0<br/>samples = 1<br/>value = [1, 0]>, fillcolor="#e58139ff"] ;
298 -> 299 ;
300 [label=<gini = 0.5<br/>samples = 2<br/>value = [1, 1]>, fillcolor="#e5813900"] ;
298 -> 300 ;
301 [label=<gini = 0.0<br/>samples = 3<br/>value = [3, 0]>, fillcolor="#e58139ff"] ;
297 -> 301 ;
302 [label=<Age &le; 29.8496<br/>gini = 0.4766<br/>samples = 74<br/>value = [29, 45]>, fillcolor="#399de55b"] ;
286 -> 302 ;
303 [label=<Parch &le; 3.5<br/>gini = 0.4612<br/>samples = 61<br/>value = [22, 39]>, fillcolor="#399de56f"] ;
302 -> 303 ;
304 [label=<Age &le; 29.3496<br/>gini = 0.455<br/>samples = 60<br/>value = [21, 39]>, fillcolor="#399de576"] ;
303 -> 304 ;
305 [label=<SibSp &le; 0.5<br/>gini = 0.4861<br/>samples = 24<br/>value = [10, 14]>, fillcolor="#399de549"] ;
304 -> 305 ;
306 [label=<Parch &le; 0.5<br/>gini = 0.4321<br/>samples = 19<br/>value = [6, 13]>, fillcolor="#399de589"] ;
305 -> 306 ;
307 [label=<Age &le; 27.5<br/>gini = 0.4898<br/>samples = 14<br/>value = [6, 8]>, fillcolor="#399de540"] ;
306 -> 307 ;
308 [label=<Age &le; 25.5<br/>gini = 0.4734<br/>samples = 13<br/>value = [5, 8]>, fillcolor="#399de560"] ;
307 -> 308 ;
309 [label=<Age &le; 23.5<br/>gini = 0.5<br/>samples = 10<br/>value = [5, 5]>, fillcolor="#e5813900"] ;
308 -> 309 ;
310 [label=<Age &le; 22.5<br/>gini = 0.4688<br/>samples = 8<br/>value = [3, 5]>, fillcolor="#399de566"] ;
309 -> 310 ;
311 [label=<gini = 0.4444<br/>samples = 6<br/>value = [2, 4]>, fillcolor="#399de57f"] ;
310 -> 311 ;
312 [label=<gini = 0.5<br/>samples = 2<br/>value = [1, 1]>, fillcolor="#e5813900"] ;
310 -> 312 ;
313 [label=<gini = 0.0<br/>samples = 2<br/>value = [2, 0]>, fillcolor="#e58139ff"] ;
309 -> 313 ;
314 [label=<gini = 0.0<br/>samples = 3<br/>value = [0, 3]>, fillcolor="#399de5ff"] ;
308 -> 314 ;
315 [label=<gini = 0.0<br/>samples = 1<br/>value = [1, 0]>, fillcolor="#e58139ff"] ;
307 -> 315 ;
316 [label=<gini = 0.0<br/>samples = 5<br/>value = [0, 5]>, fillcolor="#399de5ff"] ;
306 -> 316 ;
317 [label=<Age &le; 24.5<br/>gini = 0.32<br/>samples = 5<br/>value = [4, 1]>, fillcolor="#e58139bf"] ;
305 -> 317 ;
318 [label=<gini = 0.0<br/>samples = 1<br/>value = [0, 1]>, fillcolor="#399de5ff"] ;
317 -> 318 ;
319 [label=<gini = 0.0<br/>samples = 4<br/>value = [4, 0]>, fillcolor="#e58139ff"] ;
317 -> 319 ;
320 [label=<Parch &le; 1.5<br/>gini = 0.4244<br/>samples = 36<br/>value = [11, 25]>, fillcolor="#399de58f"] ;
304 -> 320 ;
321 [label=<SibSp &le; 1.5<br/>gini = 0.375<br/>samples = 32<br/>value = [8, 24]>, fillcolor="#399de5aa"] ;
320 -> 321 ;
322 [label=<Parch &le; 0.5<br/>gini = 0.3829<br/>samples = 31<br/>value = [8, 23]>, fillcolor="#399de5a6"] ;
321 -> 322 ;
323 [label=<SibSp &le; 0.5<br/>gini = 0.3911<br/>samples = 30<br/>value = [8, 22]>, fillcolor="#399de5a2"] ;
322 -> 323 ;
324 [label=<gini = 0.3967<br/>samples = 22<br/>value = [6, 16]>, fillcolor="#399de59f"] ;
323 -> 324 ;
325 [label=<gini = 0.375<br/>samples = 8<br/>value = [2, 6]>, fillcolor="#399de5aa"] ;
323 -> 325 ;
326 [label=<gini = 0.0<br/>samples = 1<br/>value = [0, 1]>, fillcolor="#399de5ff"] ;
322 -> 326 ;
327 [label=<gini = 0.0<br/>samples = 1<br/>value = [0, 1]>, fillcolor="#399de5ff"] ;
321 -> 327 ;
328 [label=<SibSp &le; 0.5<br/>gini = 0.375<br/>samples = 4<br/>value = [3, 1]>, fillcolor="#e58139aa"] ;
320 -> 328 ;
329 [label=<gini = 0.4444<br/>samples = 3<br/>value = [2, 1]>, fillcolor="#e581397f"] ;
328 -> 329 ;
330 [label=<gini = 0.0<br/>samples = 1<br/>value = [1, 0]>, fillcolor="#e58139ff"] ;
328 -> 330 ;
331 [label=<gini = 0.0<br/>samples = 1<br/>value = [1, 0]>, fillcolor="#e58139ff"] ;
303 -> 331 ;
332 [label=<Age &le; 33.5<br/>gini = 0.497<br/>samples = 13<br/>value = [7, 6]>, fillcolor="#e5813924"] ;
302 -> 332 ;
333 [label=<Age &le; 31.5<br/>gini = 0.4444<br/>samples = 9<br/>value = [6, 3]>, fillcolor="#e581397f"] ;
332 -> 333 ;
334 [label=<Age &le; 30.75<br/>gini = 0.4688<br/>samples = 8<br/>value = [5, 3]>, fillcolor="#e5813966"] ;
333 -> 334 ;
335 [label=<SibSp &le; 0.5<br/>gini = 0.375<br/>samples = 4<br/>value = [3, 1]>, fillcolor="#e58139aa"] ;
334 -> 335 ;
336 [label=<Age &le; 30.25<br/>gini = 0.4444<br/>samples = 3<br/>value = [2, 1]>, fillcolor="#e581397f"] ;
335 -> 336 ;
337 [label=<gini = 0.5<br/>samples = 2<br/>value = [1, 1]>, fillcolor="#e5813900"] ;
336 -> 337 ;
338 [label=<gini = 0.0<br/>samples = 1<br/>value = [1, 0]>, fillcolor="#e58139ff"] ;
336 -> 338 ;
339 [label=<gini = 0.0<br/>samples = 1<br/>value = [1, 0]>, fillcolor="#e58139ff"] ;
335 -> 339 ;
340 [label=<Parch &le; 0.5<br/>gini = 0.5<br/>samples = 4<br/>value = [2, 2]>, fillcolor="#e5813900"] ;
334 -> 340 ;
341 [label=<SibSp &le; 0.5<br/>gini = 0.4444<br/>samples = 3<br/>value = [2, 1]>, fillcolor="#e581397f"] ;
340 -> 341 ;
342 [label=<gini = 0.5<br/>samples = 2<br/>value = [1, 1]>, fillcolor="#e5813900"] ;
341 -> 342 ;
343 [label=<gini = 0.0<br/>samples = 1<br/>value = [1, 0]>, fillcolor="#e58139ff"] ;
341 -> 343 ;
344 [label=<gini = 0.0<br/>samples = 1<br/>value = [0, 1]>, fillcolor="#399de5ff"] ;
340 -> 344 ;
345 [label=<gini = 0.0<br/>samples = 1<br/>value = [1, 0]>, fillcolor="#e58139ff"] ;
333 -> 345 ;
346 [label=<SibSp &le; 0.5<br/>gini = 0.375<br/>samples = 4<br/>value = [1, 3]>, fillcolor="#399de5aa"] ;
332 -> 346 ;
347 [label=<gini = 0.0<br/>samples = 1<br/>value = [1, 0]>, fillcolor="#e58139ff"] ;
346 -> 347 ;
348 [label=<gini = 0.0<br/>samples = 3<br/>value = [0, 3]>, fillcolor="#399de5ff"] ;
346 -> 348 ;
349 [label=<Age &le; 55.5<br/>gini = 0.1528<br/>samples = 12<br/>value = [11, 1]>, fillcolor="#e58139e8"] ;
265 -> 349 ;
350 [label=<gini = 0.0<br/>samples = 11<br/>value = [11, 0]>, fillcolor="#e58139ff"] ;
349 -> 350 ;
351 [label=<gini = 0.0<br/>samples = 1<br/>value = [0, 1]>, fillcolor="#399de5ff"] ;
349 -> 351 ;
352 [label=<Age &le; 31.3496<br/>gini = 0.2778<br/>samples = 18<br/>value = [15, 3]>, fillcolor="#e58139cc"] ;
264 -> 352 ;
353 [label=<SibSp &le; 3.5<br/>gini = 0.2076<br/>samples = 17<br/>value = [15, 2]>, fillcolor="#e58139dd"] ;
352 -> 353 ;
354 [label=<gini = 0.0<br/>samples = 7<br/>value = [7, 0]>, fillcolor="#e58139ff"] ;
353 -> 354 ;
355 [label=<SibSp &le; 4.5<br/>gini = 0.32<br/>samples = 10<br/>value = [8, 2]>, fillcolor="#e58139bf"] ;
353 -> 355 ;
356 [label=<Age &le; 14.0<br/>gini = 0.4444<br/>samples = 6<br/>value = [4, 2]>, fillcolor="#e581397f"] ;
355 -> 356 ;
357 [label=<Age &le; 5.5<br/>gini = 0.32<br/>samples = 5<br/>value = [4, 1]>, fillcolor="#e58139bf"] ;
356 -> 357 ;
358 [label=<Age &le; 3.5<br/>gini = 0.5<br/>samples = 2<br/>value = [1, 1]>, fillcolor="#e5813900"] ;
357 -> 358 ;
359 [label=<gini = 0.0<br/>samples = 1<br/>value = [1, 0]>, fillcolor="#e58139ff"] ;
358 -> 359 ;
360 [label=<gini = 0.0<br/>samples = 1<br/>value = [0, 1]>, fillcolor="#399de5ff"] ;
358 -> 360 ;
361 [label=<gini = 0.0<br/>samples = 3<br/>value = [3, 0]>, fillcolor="#e58139ff"] ;
357 -> 361 ;
362 [label=<gini = 0.0<br/>samples = 1<br/>value = [0, 1]>, fillcolor="#399de5ff"] ;
356 -> 362 ;
363 [label=<gini = 0.0<br/>samples = 4<br/>value = [4, 0]>, fillcolor="#e58139ff"] ;
355 -> 363 ;
364 [label=<gini = 0.0<br/>samples = 1<br/>value = [0, 1]>, fillcolor="#399de5ff"] ;
352 -> 364 ;
}