digraph Tree {
node [shape=box, style="filled, rounded", color="black", fontname=helvetica] ;
edge [fontname=helvetica] ;
0 [label=<Sex_female &le; 0.5<br/>entropy = 0.9537<br/>samples = 623<br/>value = [390, 233]>, fillcolor="#e5813967"] ;
1 [label=<Pclass &le; 1.5<br/>entropy = 0.6771<br/>samples = 403<br/>value = [331, 72]>, fillcolor="#e58139c8"] ;
0 -> 1 [labeldistance=2.5, labelangle=45, headlabel="True"] ;
2 [label=<Age &le; 17.5<br/>entropy = 0.9355<br/>samples = 91<br/>value = [59, 32]>, fillcolor="#e5813975"] ;
1 -> 2 ;
3 [label=<entropy = 0.0<br/>samples = 3<br/>value = [0, 3]>, fillcolor="#399de5ff"] ;
2 -> 3 ;
4 [label=<Age &le; 60.5<br/>entropy = 0.9145<br/>samples = 88<br/>value = [59, 29]>, fillcolor="#e5813982"] ;
2 -> 4 ;
5 [label=<Age &le; 24.5<br/>entropy = 0.941<br/>samples = 81<br/>value = [52, 29]>, fillcolor="#e5813971"] ;
4 -> 5 ;
6 [label=<entropy = 0.0<br/>samples = 6<br/>value = [6, 0]>, fillcolor="#e58139ff"] ;
5 -> 6 ;
7 [label=<entropy = 0.9626<br/>samples = 75<br/>value = [46, 29]>, fillcolor="#e581395e"] ;
5 -> 7 ;
8 [label=<entropy = 0.0<br/>samples = 7<br/>value = [7, 0]>, fillcolor="#e58139ff"] ;
4 -> 8 ;
9 [label=<Age &le; 6.5<br/>entropy = 0.5525<br/>samples = 312<br/>value = [272, 40]>, fillcolor="#e58139da"] ;
1 -> 9 ;
10 [label=<SibSp &le; 2.5<br/>entropy = 0.9183<br/>samples = 15<br/>value = [5, 10]>, fillcolor="#399de57f"] ;
9 -> 10 ;
11 [label=<entropy = 0.0<br/>samples = 9<br/>value = [0, 9]>, fillcolor="#399de5ff"] ;
10 -> 11 ;
12 [label=<Age &le; 2.5<br/>entropy = 0.65<br/>samples = 6<br/>value = [5, 1]>, fillcolor="#e58139cc"] ;
10 -> 12 ;
13 [label=<entropy = 0.0<br/>samples = 4<br/>value = [4, 0]>, fillcolor="#e58139ff"] ;
12 -> 13 ;
14 [label=<entropy = 1.0<br/>samples = 2<br/>value = [1, 1]>, fillcolor="#e5813900"] ;
12 -> 14 ;
15 [label=<Embarked_Q &le; 0.5<br/>entropy = 0.4722<br/>samples = 297<br/>value = [267, 30]>, fillcolor="#e58139e2"] ;
9 -> 15 ;
16 [label=<SibSp &le; 1.5<br/>entropy = 0.5008<br/>samples = 272<br/>value = [242, 30]>, fillcolor="#e58139df"] ;
15 -> 16 ;
17 [label=<entropy = 0.5239<br/>samples = 254<br/>value = [224, 30]>, fillcolor="#e58139dd"] ;
16 -> 17 ;
18 [label=<entropy = 0.0<br/>samples = 18<br/>value = [18, 0]>, fillcolor="#e58139ff"] ;
16 -> 18 ;
19 [label=<entropy = 0.0<br/>samples = 25<br/>value = [25, 0]>, fillcolor="#e58139ff"] ;
15 -> 19 ;
20 [label=<Pclass &le; 2.5<br/>entropy = 0.8388<br/>samples = 220<br/>value = [59, 161]>, fillcolor="#399de5a2"] ;
0 -> 20 [labeldistance=2.5, labelangle=-45, headlabel="False"] ;
21 [label=<Age &le; 2.5<br/>entropy = 0.3189<br/>samples = 121<br/>value = [7, 114]>, fillcolor="#399de5ef"] ;
20 -> 21 ;
22 [label=<entropy = 0.0<br/>samples = 1<br/>value = [1, 0]>, fillcolor="#e58139ff"] ;
21 -> 22 ;
23 [label=<Age &le; 23.5<br/>entropy = 0.2864<br/>samples = 120<br/>value = [6, 114]>, fillcolor="#399de5f2"] ;
21 -> 23 ;
24 [label=<entropy = 0.0<br/>samples = 29<br/>value = [0, 29]>, fillcolor="#399de5ff"] ;
23 -> 24 ;
25 [label=<Age &le; 26.5<br/>entropy = 0.3506<br/>samples = 91<br/>value = [6, 85]>, fillcolor="#399de5ed"] ;
23 -> 25 ;
26 [label=<entropy = 0.8113<br/>samples = 12<br/>value = [3, 9]>, fillcolor="#399de5aa"] ;
25 -> 26 ;
27 [label=<entropy = 0.2329<br/>samples = 79<br/>value = [3, 76]>, fillcolor="#399de5f5"] ;
25 -> 27 ;
28 [label=<Age &le; 36.5<br/>entropy = 0.9982<br/>samples = 99<br/>value = [52, 47]>, fillcolor="#e5813919"] ;
20 -> 28 ;
29 [label=<Embarked_S &le; 0.5<br/>entropy = 0.9986<br/>samples = 90<br/>value = [43, 47]>, fillcolor="#399de516"] ;
28 -> 29 ;
30 [label=<Age &le; 27.2593<br/>entropy = 0.8338<br/>samples = 34<br/>value = [9, 25]>, fillcolor="#399de5a3"] ;
29 -> 30 ;
31 [label=<entropy = 0.7579<br/>samples = 32<br/>value = [7, 25]>, fillcolor="#399de5b8"] ;
30 -> 31 ;
32 [label=<entropy = 0.0<br/>samples = 2<br/>value = [2, 0]>, fillcolor="#e58139ff"] ;
30 -> 32 ;
33 [label=<Age &le; 16.5<br/>entropy = 0.9666<br/>samples = 56<br/>value = [34, 22]>, fillcolor="#e581395a"] ;
29 -> 33 ;
34 [label=<entropy = 0.6723<br/>samples = 17<br/>value = [14, 3]>, fillcolor="#e58139c8"] ;
33 -> 34 ;
35 [label=<entropy = 0.9995<br/>samples = 39<br/>value = [20, 19]>, fillcolor="#e581390d"] ;
33 -> 35 ;
36 [label=<entropy = 0.0<br/>samples = 9<br/>value = [9, 0]>, fillcolor="#e58139ff"] ;
28 -> 36 ;
}